<?xml version="1.0"?>
<opencv_storage>
<cascade>
  <stageType>BOOST</stageType>
  <featureType>LBP</featureType>
  <height>60</height>
  <width>80</width>
  <stageParams>
    <boostType>GAB</boostType>
    <minHitRate>9.9500000476837158e-01</minHitRate>
    <maxFalseAlarm>2.0000000298023224e-01</maxFalseAlarm>
    <weightTrimRate>9.4999999999999996e-01</weightTrimRate>
    <maxDepth>1</maxDepth>
    <maxWeakCount>100</maxWeakCount></stageParams>
  <featureParams>
    <maxCatCount>256</maxCatCount>
    <featSize>1</featSize></featureParams>
  <stageNum>30</stageNum>
  <stages>
    <!-- stage 0 -->
    <_>
      <maxWeakCount>4</maxWeakCount>
      <stageThreshold>-1.3600569963455200e-01</stageThreshold>
      <weakClassifiers>
        <_>
          <internalNodes>
            0 -1 63 -1068178816 1937969442 -1879044092 -749403831
            -937385851 -1047854976 -939425127 -604264229</internalNodes>
          <leafValues>
            -8.9552241563796997e-01 7.9247432947158813e-01</leafValues></_>
        <_>
          <internalNodes>
            0 -1 40 -16387697 -749563901 470302984 -988724608 -660412278
            -1306525696 1384415247 151584907</internalNodes>
          <leafValues>
            -7.5770497322082520e-01 7.3715609312057495e-01</leafValues></_>
        <_>
          <internalNodes>
            0 -1 60 -855713541 -855794435 233761679 -1610664449
            -2017533441 -809529857 -806369096 -1926266708</internalNodes>
          <leafValues>
            -6.2752807140350342e-01 7.7913612127304077e-01</leafValues></_>
        <_>
          <internalNodes>
            0 -1 120 -748422901 -250261309 453018002 1360003341
            -1979469813 268566528 -738196981 1996692255</internalNodes>
          <leafValues>
            -7.5677549839019775e-01 7.2353655099868774e-01</leafValues></_></weakClassifiers></_>
    <!-- stage 1 -->
    <_>
      <maxWeakCount>2</maxWeakCount>
      <stageThreshold>-9.5934718847274780e-02</stageThreshold>
      <weakClassifiers>
        <_>
          <internalNodes>
            0 -1 78 1753514112 1094221824 536896000 -738161897
            -1071461366 -2138505206 -535777141 -208936821</internalNodes>
          <leafValues>
            -9.5031058788299561e-01 9.2466586828231812e-01</leafValues></_>
        <_>
          <internalNodes>
            0 -1 54 -1073594328 -398422008 -1073721080 -603979008
            -530542449 813760513 -654261606 -460870934</internalNodes>
          <leafValues>
            -9.2529368400573730e-01 8.5437583923339844e-01</leafValues></_></weakClassifiers></_>
    <!-- stage 2 -->
    <_>
      <maxWeakCount>4</maxWeakCount>
      <stageThreshold>-1.3790231198072433e-02</stageThreshold>
      <weakClassifiers>
        <_>
          <internalNodes>
            0 -1 92 1984349344 461287888 -285212735 -2203 -796090198
            -4159 -16842827 -1</internalNodes>
          <leafValues>
            -7.7089780569076538e-01 8.5644769668579102e-01</leafValues></_>
        <_>
          <internalNodes>
            0 -1 41 -389356318 -1873641451 -1862266544 -1223835613
            -2147442247 -131055488 -1065285493 -525368437</internalNodes>
          <leafValues>
            -7.1063095331192017e-01 7.3186075687408447e-01</leafValues></_>
        <_>
          <internalNodes>
            0 -1 126 1359220960 268435616 1627427840 -1791946752
            1342210216 -1878818784 134350984 -1979338557</internalNodes>
          <leafValues>
            -7.1438723802566528e-01 7.4376845359802246e-01</leafValues></_>
        <_>
          <internalNodes>
            0 -1 15 -1055161448 -1689943787 266648 -1815641979
            -1333587782 965935744 -1974957822 2141170187</internalNodes>
          <leafValues>
            -7.0466488599777222e-01 7.3963409662246704e-01</leafValues></_></weakClassifiers></_>
    <!-- stage 3 -->
    <_>
      <maxWeakCount>6</maxWeakCount>
      <stageThreshold>2.0894405245780945e-01</stageThreshold>
      <weakClassifiers>
        <_>
          <internalNodes>
            0 -1 44 -554709761 -574650339 229608895 1337953343
            1828638158 -1884385873 212831487 26181772</internalNodes>
          <leafValues>
            -5.4802262783050537e-01 8.2048040628433228e-01</leafValues></_>
        <_>
          <internalNodes>
            0 -1 23 -524549 2147483646 855025680 1005420142 1879048191
            2147483647 1442792926 1818032127</internalNodes>
          <leafValues>
            -5.1293152570724487e-01 7.6070308685302734e-01</leafValues></_>
        <_>
          <internalNodes>
            0 -1 97 -9437479 -69214968 1857949535 -549910192 -923255380
            -22209400 -1350017793 -1962275576</internalNodes>
          <leafValues>
            -5.2820324897766113e-01 7.8456008434295654e-01</leafValues></_>
        <_>
          <internalNodes>
            0 -1 61 -426845197 -49430503 1161887745 -2130636669 33775721
            -1459617792 1611284622 -2135172087</internalNodes>
          <leafValues>
            -6.3613629341125488e-01 7.3472630977630615e-01</leafValues></_>
        <_>
          <internalNodes>
            0 -1 77 1631625654 -787382271 -1073731531 -1861156559
            1208008833 -267255744 -1073741603 203458610</internalNodes>
          <leafValues>
            -8.1829279661178589e-01 5.3890663385391235e-01</leafValues></_>
        <_>
          <internalNodes>
            0 -1 198 -1262291637 16891913 1342214581 -251559791
            -778889025 -1355282432 -796874550 746643648</internalNodes>
          <leafValues>
            -7.0237034559249878e-01 6.6207611560821533e-01</leafValues></_></weakClassifiers></_>
    <!-- stage 4 -->
    <_>
      <maxWeakCount>5</maxWeakCount>
      <stageThreshold>-5.8166795969009399e-01</stageThreshold>
      <weakClassifiers>
        <_>
          <internalNodes>
            0 -1 117 -214435469 -67517357 -16777349 -88342730 1974924083
            -283066349 1002173211 36961073</internalNodes>
          <leafValues>
            -6.0269361734390259e-01 7.4764150381088257e-01</leafValues></_>
        <_>
          <internalNodes>
            0 -1 127 -161502194 -519990971 -528363449 309675009
            -1333352157 -121536504 -939409329 -228354797</internalNodes>
          <leafValues>
            -6.4418500661849976e-01 6.5169429779052734e-01</leafValues></_>
        <_>
          <internalNodes>
            0 -1 1 -255462207 -653147840 -2104901535 -587120237
            -266801590 -1023410175 -1925102965 1661943812</internalNodes>
          <leafValues>
            -6.0726094245910645e-01 6.7570716142654419e-01</leafValues></_>
        <_>
          <internalNodes>
            0 -1 76 -544670224 -784329648 603984977 -1098301307
            -2004191008 -255687542 -1711271693 -469317619</internalNodes>
          <leafValues>
            -6.2942248582839966e-01 6.5821957588195801e-01</leafValues></_>
        <_>
          <internalNodes>
            0 -1 29 -150998648 1431415040 201605465 512256 -1902472534
            1476591690 268435618 -269835898</internalNodes>
          <leafValues>
            -7.8103703260421753e-01 5.5155891180038452e-01</leafValues></_></weakClassifiers></_>
    <!-- stage 5 -->
    <_>
      <maxWeakCount>6</maxWeakCount>
      <stageThreshold>-7.9025202989578247e-01</stageThreshold>
      <weakClassifiers>
        <_>
          <internalNodes>
            0 -1 114 -337073412 -8410344 -1086531107 456852799
            -587169550 -1078057162 252321679 252316940</internalNodes>
          <leafValues>
            -6.3076925277709961e-01 6.9943505525588989e-01</leafValues></_>
        <_>
          <internalNodes>
            0 -1 164 -247402038 -753856488 327680 1904803840 8421610
            -1602174974 553719946 252907563</internalNodes>
          <leafValues>
            -5.3045547008514404e-01 7.4845987558364868e-01</leafValues></_>
        <_>
          <internalNodes>
            0 -1 45 -264237040 1372651520 83915035 1292177433
            -1508200264 -1148600166 50860175 -1909702630</internalNodes>
          <leafValues>
            -5.1272964477539062e-01 7.6005780696868896e-01</leafValues></_>
        <_>
          <internalNodes>
            0 -1 156 268439704 1430257728 1090588953 1364328728
            -1207922293 -1744764927 185204874 246030378</internalNodes>
          <leafValues>
            -6.4616376161575317e-01 6.4211618900299072e-01</leafValues></_>
        <_>
          <internalNodes>
            0 -1 192 -1107768228 -738304756 754890234 963346295
            2134704122 -293680009 1885601727 995809019</internalNodes>
          <leafValues>
            -5.6261062622070312e-01 7.3151320219039917e-01</leafValues></_>
        <_>
          <internalNodes>
            0 -1 141 -32450440 -18153768 -1073872899 526421278
            -1642578182 -12337156 2134383102 -150265986</internalNodes>
          <leafValues>
            -5.3185135126113892e-01 7.4140554666519165e-01</leafValues></_></weakClassifiers></_>
    <!-- stage 6 -->
    <_>
      <maxWeakCount>6</maxWeakCount>
      <stageThreshold>8.3488598465919495e-02</stageThreshold>
      <weakClassifiers>
        <_>
          <internalNodes>
            0 -1 100 -454153728 -8409285 -1346662465 1060085551
            -843075650 -20609 1296010751 -921533805</internalNodes>
          <leafValues>
            -6.1048686504364014e-01 7.0387244224548340e-01</leafValues></_>
        <_>
          <internalNodes>
            0 -1 9 -2883842 -760562046 -1082262529 -2046893791 -33554561
            -1073744006 2012231025 1467478370</internalNodes>
          <leafValues>
            -5.5450868606567383e-01 6.5603464841842651e-01</leafValues></_>
        <_>
          <internalNodes>
            0 -1 48 -522737878 -1596157740 21172625 -787410919
            -2004318053 -2013200256 1082710296 -711964662</internalNodes>
          <leafValues>
            -7.4229443073272705e-01 4.8801565170288086e-01</leafValues></_>
        <_>
          <internalNodes>
            0 -1 171 -181080934 857815284 1609793281 1363696110
            1596246947 -1935521944 106952579 467373267</internalNodes>
          <leafValues>
            -5.5629074573516846e-01 6.6673022508621216e-01</leafValues></_>
        <_>
          <internalNodes>
            0 -1 57 -1844899583 118128913 16778251 -912801505
            -2146717045 -1542782720 -2012708190 1546854410</internalNodes>
          <leafValues>
            -5.5816853046417236e-01 6.6152399778366089e-01</leafValues></_>
        <_>
          <internalNodes>
            0 -1 200 1290968148 -573571108 -268505253 -50594193
            528346206 1205862399 1843264602 -926286633</internalNodes>
          <leafValues>
            -5.4801893234252930e-01 6.7520397901535034e-01</leafValues></_></weakClassifiers></_>
    <!-- stage 7 -->
    <_>
      <maxWeakCount>8</maxWeakCount>
      <stageThreshold>1.6080193221569061e-01</stageThreshold>
      <weakClassifiers>
        <_>
          <internalNodes>
            0 -1 184 -152569164 2130607675 2138570623 738197119
            1996408054 -98305 401923940 1147664243</internalNodes>
          <leafValues>
            -4.9116608500480652e-01 6.8909513950347900e-01</leafValues></_>
        <_>
          <internalNodes>
            0 -1 75 -1072846589 -486505727 1140932865 270487829
            -1031634533 -938295274 -2097118545 -877428313</internalNodes>
          <leafValues>
            -5.7609695196151733e-01 5.8892095088958740e-01</leafValues></_>
        <_>
          <internalNodes>
            0 -1 56 1568627583 1753169272 -411745 2004385393 2147400946
            808910710 1031481331 1498674612</internalNodes>
          <leafValues>
            -5.3956580162048340e-01 6.1556631326675415e-01</leafValues></_>
        <_>
          <internalNodes>
            0 -1 130 -668954408 -1286241792 402887029 -996669428
            -2021482008 -1610579836 1350824063 -106423279</internalNodes>
          <leafValues>
            -5.5999016761779785e-01 6.1235642433166504e-01</leafValues></_>
        <_>
          <internalNodes>
            0 -1 37 -519814949 -771714558 -2075963309 -265170541
            270647370 -1602187213 -1584856422 -888715893</internalNodes>
          <leafValues>
            -5.6027895212173462e-01 6.2256538867950439e-01</leafValues></_>
        <_>
          <internalNodes>
            0 -1 108 -1162892632 -1440223286 2034673328 1367293942
            -1912689462 -733684115 532646909 1428674526</internalNodes>
          <leafValues>
            -5.9019398689270020e-01 6.3304150104522705e-01</leafValues></_>
        <_>
          <internalNodes>
            0 -1 84 1069506043 997817726 -1343291817 535441016
            2097100669 1602060286 536222834 -291639892</internalNodes>
          <leafValues>
            -5.5241304636001587e-01 6.6191905736923218e-01</leafValues></_>
        <_>
          <internalNodes>
            0 -1 167 -1056909506 17170496 69888 161022081 -2108710157
            -2122252288 -641619552 1004761097</internalNodes>
          <leafValues>
            -6.6996312141418457e-01 5.6787908077239990e-01</leafValues></_></weakClassifiers></_>
    <!-- stage 8 -->
    <_>
      <maxWeakCount>6</maxWeakCount>
      <stageThreshold>-4.3008778244256973e-02</stageThreshold>
      <weakClassifiers>
        <_>
          <internalNodes>
            0 -1 133 2147199497 -323801 -8388689 1916010298 -4998377
            -276877761 -9224386 -231520457</internalNodes>
          <leafValues>
            -3.9766082167625427e-01 7.3599004745483398e-01</leafValues></_>
        <_>
          <internalNodes>
            0 -1 129 968495423 -1073775302 1073700863 129187327
            788282814 -1107853319 -1074495750 -1151728472</internalNodes>
          <leafValues>
            -4.8802611231803894e-01 6.4005982875823975e-01</leafValues></_>
        <_>
          <internalNodes>
            0 -1 20 341964266 1378422827 2019709012 -1323756543
            186499802 965238794 1786977515 334438599</internalNodes>
          <leafValues>
            -6.1859655380249023e-01 5.3758949041366577e-01</leafValues></_>
        <_>
          <internalNodes>
            0 -1 18 -134102534 -486465400 1077954909 -777117552
            -670905982 2014872072 -1962790492 1086345678</internalNodes>
          <leafValues>
            -7.2580438852310181e-01 4.6896749734878540e-01</leafValues></_>
        <_>
          <internalNodes>
            0 -1 107 1343808656 -754908848 176161872 -1877894119
            -1685576495 -1844248416 2622681 -1162343463</internalNodes>
          <leafValues>
            -6.5592074394226074e-01 5.2484643459320068e-01</leafValues></_>
        <_>
          <internalNodes>
            0 -1 2 -290988229 720961356 -65541 -18415694 -1073742031
            -14286917 -1073807550 -300441577</internalNodes>
          <leafValues>
            -5.7492303848266602e-01 6.3291108608245850e-01</leafValues></_></weakClassifiers></_>
    <!-- stage 9 -->
    <_>
      <maxWeakCount>7</maxWeakCount>
      <stageThreshold>-5.6504225730895996e-01</stageThreshold>
      <weakClassifiers>
        <_>
          <internalNodes>
            0 -1 110 576783104 -1359003849 1610088445 -838909969
            -318783617 -310444033 -805437569 -922910721</internalNodes>
          <leafValues>
            -5.5823290348052979e-01 6.6294640302658081e-01</leafValues></_>
        <_>
          <internalNodes>
            0 -1 196 -1346375683 -1963204625 -1376781124 669990582
            -291012 -1747124244 -285418120 109825690</internalNodes>
          <leafValues>
            -5.2170276641845703e-01 6.4469218254089355e-01</leafValues></_>
        <_>
          <internalNodes>
            0 -1 17 -1861627521 189880325 122161942 1393033237 707264697
            207659048 134253579 2034319723</internalNodes>
          <leafValues>
            -5.3979635238647461e-01 5.8652275800704956e-01</leafValues></_>
        <_>
          <internalNodes>
            0 -1 65 2070298864 1350375760 1099239579 663896145
            -2132913260 813711362 -536704247 -1953806445</internalNodes>
          <leafValues>
            -5.8825516700744629e-01 5.9722536802291870e-01</leafValues></_>
        <_>
          <internalNodes>
            0 -1 137 702234 -1786739688 -2113928308 16847110 34058725
            -1821244896 1270457984 -1334860914</internalNodes>
          <leafValues>
            -6.6534328460693359e-01 5.3112238645553589e-01</leafValues></_>
        <_>
          <internalNodes>
            0 -1 39 392477352 -2028694255 -2096069505 -1283381184
            1242147514 -1574403922 -509568837 -2146389626</internalNodes>
          <leafValues>
            -6.6128176450729370e-01 5.2101969718933105e-01</leafValues></_>
        <_>
          <internalNodes>
            0 -1 145 -2146396067 1368474736 70087 -2147318507
            -1048477048 -1597505512 -1568667398 707282944</internalNodes>
          <leafValues>
            -6.3037657737731934e-01 5.7374030351638794e-01</leafValues></_></weakClassifiers></_>
    <!-- stage 10 -->
    <_>
      <maxWeakCount>6</maxWeakCount>
      <stageThreshold>-1.2496227771043777e-01</stageThreshold>
      <weakClassifiers>
        <_>
          <internalNodes>
            0 -1 34 2494594 6064403 -1689892528 -134067810 -2146922070
            1082212656 159918483 -259984693</internalNodes>
          <leafValues>
            -8.2417583465576172e-01 6.2824505567550659e-01</leafValues></_>
        <_>
          <internalNodes>
            0 -1 47 -1594385478 -149593712 1363231569 -1785446400
            -1693480310 -527552503 -515604221 1621996036</internalNodes>
          <leafValues>
            -5.5514240264892578e-01 5.9481179714202881e-01</leafValues></_>
        <_>
          <internalNodes>
            0 -1 132 960532612 319770784 34204041 1432374401 1073766561
            -2125713392 1108402438 -637467453</internalNodes>
          <leafValues>
            -5.6082993745803833e-01 6.6822618246078491e-01</leafValues></_>
        <_>
          <internalNodes>
            0 -1 95 1342269697 -749731603 -1073471327 -728657747
            1622196229 -2104425344 -2138715984 -805107441</internalNodes>
          <leafValues>
            -7.2120815515518188e-01 4.7788867354393005e-01</leafValues></_>
        <_>
          <internalNodes>
            0 -1 11 -217622305 1410187396 1132663315 -585977629
            -2142568445 1111654404 1233455112 1703734018</internalNodes>
          <leafValues>
            -6.3437700271606445e-01 5.8670276403427124e-01</leafValues></_>
        <_>
          <internalNodes>
            0 -1 74 -786085422 444601986 151521873 1410687507
            -2147442560 411877546 587735326 -334199407</internalNodes>
          <leafValues>
            -6.3070088624954224e-01 5.7902759313583374e-01</leafValues></_></weakClassifiers></_>
    <!-- stage 11 -->
    <_>
      <maxWeakCount>8</maxWeakCount>
      <stageThreshold>-3.9898421615362167e-02</stageThreshold>
      <weakClassifiers>
        <_>
          <internalNodes>
            0 -1 52 -1410334814 1879042024 -33557007 -436275720 785530
            -1359741450 1161115120 16572528</internalNodes>
          <leafValues>
            -4.9606299400329590e-01 6.5207630395889282e-01</leafValues></_>
        <_>
          <internalNodes>
            0 -1 191 -1793330185 227700803 1489183187 -1509834097
            1358995682 570984453 -1014980478 12890262</internalNodes>
          <leafValues>
            -5.5368447303771973e-01 5.6130599975585938e-01</leafValues></_>
        <_>
          <internalNodes>
            0 -1 96 1658067418 1561780196 -537004175 202460637 532340440
            -133136397 -60910337 -1567363205</internalNodes>
          <leafValues>
            -4.5409375429153442e-01 6.8216270208358765e-01</leafValues></_>
        <_>
          <internalNodes>
            0 -1 122 -201009442 2048131274 71729161 1988313107 287474578
            209723392 587372715 990052361</internalNodes>
          <leafValues>
            -6.2954092025756836e-01 5.4915833473205566e-01</leafValues></_>
        <_>
          <internalNodes>
            0 -1 53 -574524973 -397358463 -771669184 84758801 -788438777
            -1476329471 1744904212 -992226737</internalNodes>
          <leafValues>
            -5.3388738632202148e-01 6.7977201938629150e-01</leafValues></_>
        <_>
          <internalNodes>
            0 -1 177 -787754606 -1005518832 555356489 -1459593213
            -2096963192 142747787 411052163 58958249</internalNodes>
          <leafValues>
            -6.3135844469070435e-01 6.0647928714752197e-01</leafValues></_>
        <_>
          <internalNodes>
            0 -1 85 -1114472326 -1861418935 276824083 -41547839
            -1729064541 1933696 85756510 303745551</internalNodes>
          <leafValues>
            -6.8904650211334229e-01 5.0520485639572144e-01</leafValues></_>
        <_>
          <internalNodes>
            0 -1 16 113660654 -671088637 17551369 1342218263 -1031798704
            -2136866816 -2101082539 1848048426</internalNodes>
          <leafValues>
            -6.9349187612533569e-01 5.0594705343246460e-01</leafValues></_></weakClassifiers></_>
    <!-- stage 12 -->
    <_>
      <maxWeakCount>8</maxWeakCount>
      <stageThreshold>2.9308570548892021e-02</stageThreshold>
      <weakClassifiers>
        <_>
          <internalNodes>
            0 -1 86 1183491744 860881824 67260809 1652560389 -2144268894
            -1728020457 1358220293 -514408415</internalNodes>
          <leafValues>
            -7.7514791488647461e-01 6.0040986537933350e-01</leafValues></_>
        <_>
          <internalNodes>
            0 -1 6 -804279273 521191938 21103000 -893100032 1494420059
            180486146 1468622921 1518624840</internalNodes>
          <leafValues>
            -6.1084896326065063e-01 4.8634299635887146e-01</leafValues></_>
        <_>
          <internalNodes>
            0 -1 33 885018851 1141207221 -2012736685 94400769 8409283
            -1056816639 -2147041043 807518597</internalNodes>
          <leafValues>
            -5.7568830251693726e-01 5.6604719161987305e-01</leafValues></_>
        <_>
          <internalNodes>
            0 -1 31 -255929681 -860037125 -408027153 -34689304
            -1394165828 -541071701 -487602955 -516971473</internalNodes>
          <leafValues>
            -4.8061445355415344e-01 6.4073944091796875e-01</leafValues></_>
        <_>
          <internalNodes>
            0 -1 189 -754090895 1883636256 17903936 2051555332
            -364371959 -256966656 -989642486 -791778348</internalNodes>
          <leafValues>
            -5.5827689170837402e-01 6.0723751783370972e-01</leafValues></_>
        <_>
          <internalNodes>
            0 -1 49 -143450113 2019457982 -16842754 900886525 -8442355
            -25921677 -8390796 -589168834</internalNodes>
          <leafValues>
            -4.5974677801132202e-01 7.3929798603057861e-01</leafValues></_>
        <_>
          <internalNodes>
            0 -1 176 -933573036 -897809830 -2130140939 -1853751294
            -1060618015 -1597996375 -2012182305 1963507808</internalNodes>
          <leafValues>
            -6.0893279314041138e-01 5.4254698753356934e-01</leafValues></_>
        <_>
          <internalNodes>
            0 -1 66 7391417 -535813485 -669957691 -1744727772 1075966315
            -1610606671 -2118024927 -1398505207</internalNodes>
          <leafValues>
            -6.3727438449859619e-01 5.4286354780197144e-01</leafValues></_></weakClassifiers></_>
    <!-- stage 13 -->
    <_>
      <maxWeakCount>8</maxWeakCount>
      <stageThreshold>-1.0818716138601303e-01</stageThreshold>
      <weakClassifiers>
        <_>
          <internalNodes>
            0 -1 87 -1005354974 1090945331 1207977621 16779269 4194692
            1074894852 -1056927508 -329719264</internalNodes>
          <leafValues>
            -7.0930230617523193e-01 5.9301131963729858e-01</leafValues></_>
        <_>
          <internalNodes>
            0 -1 153 -1457957153 -2126282484 293802193 -2080205818
            -1979558150 939622409 780797100 731456058</internalNodes>
          <leafValues>
            -5.0472301244735718e-01 5.6209558248519897e-01</leafValues></_>
        <_>
          <internalNodes>
            0 -1 90 -71980388 -205612 1056672273 1922125393 -4662062
            -18186512 -6261257 -368843756</internalNodes>
          <leafValues>
            -4.7010284662246704e-01 6.7772823572158813e-01</leafValues></_>
        <_>
          <internalNodes>
            0 -1 27 1750652301 -1795059577 117531397 1209037715
            -527990694 -300823293 -1572239858 1618965647</internalNodes>
          <leafValues>
            -5.6733971834182739e-01 5.9018379449844360e-01</leafValues></_>
        <_>
          <internalNodes>
            0 -1 113 -1585229424 1503940616 -1051523757 370389121
            939524616 -919568174 -1543468911 -925787909</internalNodes>
          <leafValues>
            -5.8337599039077759e-01 5.5285042524337769e-01</leafValues></_>
        <_>
          <internalNodes>
            0 -1 70 -1073526785 1392705911 -1342105699 2080702553
            -787185660 -267616152 -1576762699 1112136137</internalNodes>
          <leafValues>
            -5.8179050683975220e-01 6.2466037273406982e-01</leafValues></_>
        <_>
          <internalNodes>
            0 -1 99 1795248626 2077294704 337924371 -1685913291
            687907256 -1727887199 -2012192405 76464208</internalNodes>
          <leafValues>
            -7.1229070425033569e-01 4.9076211452484131e-01</leafValues></_>
        <_>
          <internalNodes>
            0 -1 109 1075311140 18368592 -1442805723 855802499
            -1597406559 17006600 -2012741495 1786808963</internalNodes>
          <leafValues>
            -7.6868599653244019e-01 4.5114547014236450e-01</leafValues></_></weakClassifiers></_>
    <!-- stage 14 -->
    <_>
      <maxWeakCount>8</maxWeakCount>
      <stageThreshold>-3.7119001150131226e-02</stageThreshold>
      <weakClassifiers>
        <_>
          <internalNodes>
            0 -1 190 -1743790464 214765572 -1845459709 4358226 293710916
            1082753028 1073783302 1147394</internalNodes>
          <leafValues>
            -7.5000000000000000e-01 5.8375632762908936e-01</leafValues></_>
        <_>
          <internalNodes>
            0 -1 5 1788236144 -787737472 -1266532201 151273548
            1778395139 -1023352830 551555375 2091974923</internalNodes>
          <leafValues>
            -6.3499146699905396e-01 4.6262720227241516e-01</leafValues></_>
        <_>
          <internalNodes>
            0 -1 165 -774440550 808534080 1157645569 1224806403
            -1040022390 -1551892480 -2144827657 453990810</internalNodes>
          <leafValues>
            -5.2636611461639404e-01 6.2179940938949585e-01</leafValues></_>
        <_>
          <internalNodes>
            0 -1 186 -1728315393 -1360101377 2147265011 -270078468
            1700779680 237164276 745661681 1724775929</internalNodes>
          <leafValues>
            -5.6971997022628784e-01 5.8204311132431030e-01</leafValues></_>
        <_>
          <internalNodes>
            0 -1 135 -554057495 -69321991 -1087161516 2066415556
            -67189008 -16933064 2142386847 -80609765</internalNodes>
          <leafValues>
            -4.6280881762504578e-01 6.9836920499801636e-01</leafValues></_>
        <_>
          <internalNodes>
            0 -1 112 -141505415 -1197848 -21010607 -1614946607 -4592168
            -3612938 -1507819845 -1349513452</internalNodes>
          <leafValues>
            -5.5172085762023926e-01 6.3461941480636597e-01</leafValues></_>
        <_>
          <internalNodes>
            0 -1 42 -785038789 1645400352 1241513993 839778472
            -1811900377 1904738314 1074008100 1007872612</internalNodes>
          <leafValues>
            -6.9659656286239624e-01 4.8273116350173950e-01</leafValues></_>
        <_>
          <internalNodes>
            0 -1 161 1342650454 33800194 1093177345 1105277441 385152
            948961664 -2142711859 -741793141</internalNodes>
          <leafValues>
            -5.8923131227493286e-01 5.6794244050979614e-01</leafValues></_></weakClassifiers></_>
    <!-- stage 15 -->
    <_>
      <maxWeakCount>8</maxWeakCount>
      <stageThreshold>1.6445632278919220e-01</stageThreshold>
      <weakClassifiers>
        <_>
          <internalNodes>
            0 -1 3 -25186449 616234790 -1359020169 620166328 1241743135
            939523586 1467971367 1645558064</internalNodes>
          <leafValues>
            -4.8854961991310120e-01 6.6024917364120483e-01</leafValues></_>
        <_>
          <internalNodes>
            0 -1 170 -1109862456 -775397198 220174353 -1747208743
            -1783497866 -1622837036 -1806714461 185145015</internalNodes>
          <leafValues>
            -5.1038575172424316e-01 5.6099539995193481e-01</leafValues></_>
        <_>
          <internalNodes>
            0 -1 194 -1509689605 29425664 -586612472 -1958666207
            1132692145 -1207844864 9451 121668497</internalNodes>
          <leafValues>
            -5.3647285699844360e-01 5.7283693552017212e-01</leafValues></_>
        <_>
          <internalNodes>
            0 -1 0 -301796813 657058808 -65542 -68193622 930348799
            -1208484041 -9013898 -75127455</internalNodes>
          <leafValues>
            -4.9140846729278564e-01 6.4742064476013184e-01</leafValues></_>
        <_>
          <internalNodes>
            0 -1 102 -536833543 755339536 -1727852220 -2045980524
            186816697 -535773039 404771461 -1899720232</internalNodes>
          <leafValues>
            -5.9447997808456421e-01 5.8086389303207397e-01</leafValues></_>
        <_>
          <internalNodes>
            0 -1 179 -727709064 -1056321458 35018 164249677 269043246
            -2004336048 -2138914657 1153603600</internalNodes>
          <leafValues>
            -6.8209868669509888e-01 5.1299065351486206e-01</leafValues></_>
        <_>
          <internalNodes>
            0 -1 140 -1967161927 1089633322 -276860939 968314808
            930878526 -4202497 -1905254949 -1175562098</internalNodes>
          <leafValues>
            -5.3134107589721680e-01 6.5739500522613525e-01</leafValues></_>
        <_>
          <internalNodes>
            0 -1 58 2116148342 -1083712849 -156270875 2138307837
            -39127856 -56830210 -1805323009 -60363297</internalNodes>
          <leafValues>
            -5.0564074516296387e-01 6.7938852310180664e-01</leafValues></_></weakClassifiers></_>
    <!-- stage 16 -->
    <_>
      <maxWeakCount>8</maxWeakCount>
      <stageThreshold>-5.3463187068700790e-02</stageThreshold>
      <weakClassifiers>
        <_>
          <internalNodes>
            0 -1 12 -1024512341 -403771633 -654839810 -570458386
            90136581 726652479 1124026111 1728007663</internalNodes>
          <leafValues>
            -3.3548387885093689e-01 6.6946107149124146e-01</leafValues></_>
        <_>
          <internalNodes>
            0 -1 180 -1738874475 4165 272630033 472941056 832618881
            76190856 890114304 1742967503</internalNodes>
          <leafValues>
            -5.9102290868759155e-01 4.9775415658950806e-01</leafValues></_>
        <_>
          <internalNodes>
            0 -1 8 -1995894044 67190928 -1862119397 1066471429
            -1440216145 -1409286008 -1069970472 -736098300</internalNodes>
          <leafValues>
            -5.0314223766326904e-01 5.6491219997406006e-01</leafValues></_>
        <_>
          <internalNodes>
            0 -1 81 -2094804093 1514213377 269616273 823906433
            -1029459771 429957272 805470220 1575657600</internalNodes>
          <leafValues>
            -5.3890806436538696e-01 5.4523146152496338e-01</leafValues></_>
        <_>
          <internalNodes>
            0 -1 143 1347465548 415305797 -1006586795 1426112588
            -2101335743 940687376 -872377903 -1181740531</internalNodes>
          <leafValues>
            -5.4183036088943481e-01 5.7084971666336060e-01</leafValues></_>
        <_>
          <internalNodes>
            0 -1 111 1463819354 2131832609 2147450615 1528630759
            1996934931 -1913520181 -1226410018 -685173375</internalNodes>
          <leafValues>
            -5.4439020156860352e-01 6.4491820335388184e-01</leafValues></_>
        <_>
          <internalNodes>
            0 -1 157 -1296219358 1903198202 -134431131 401996988
            247273470 2113929215 -1082778561 -277795407</internalNodes>
          <leafValues>
            -5.2619725465774536e-01 6.5762853622436523e-01</leafValues></_>
        <_>
          <internalNodes>
            0 -1 22 -787218268 -1476194042 471044 722048311 -510033724
            973735953 1584915 -734429152</internalNodes>
          <leafValues>
            -7.1840429306030273e-01 5.1005709171295166e-01</leafValues></_></weakClassifiers></_>
    <!-- stage 17 -->
    <_>
      <maxWeakCount>8</maxWeakCount>
      <stageThreshold>-1.2527029216289520e-01</stageThreshold>
      <weakClassifiers>
        <_>
          <internalNodes>
            0 -1 168 -1073811457 -1112604740 -1342448136 -1378844684
            1733172727 1072496620 24384592 265669780</internalNodes>
          <leafValues>
            -4.2028984427452087e-01 6.5707707405090332e-01</leafValues></_>
        <_>
          <internalNodes>
            0 -1 25 -306494245 989755196 2130705599 2029177972
            -805347761 519647223 1592942271 2050928186</internalNodes>
          <leafValues>
            -4.3902194499969482e-01 6.3558292388916016e-01</leafValues></_>
        <_>
          <internalNodes>
            0 -1 139 -2146806628 -2129055464 1074839570 -1791846317
            -843054420 -1652436981 -2147350310 -1151726720</internalNodes>
          <leafValues>
            -5.2667176723480225e-01 5.4246425628662109e-01</leafValues></_>
        <_>
          <internalNodes>
            0 -1 202 -519596787 -2129829595 289752072 148721926
            -1023358652 151109645 -2136485592 1154465832</internalNodes>
          <leafValues>
            -6.3148152828216553e-01 4.8276752233505249e-01</leafValues></_>
        <_>
          <internalNodes>
            0 -1 172 -803420172 -1315962880 318902529 -1875443496 201170
            168296576 1754827393 831195823</internalNodes>
          <leafValues>
            -6.0790461301803589e-01 5.0302302837371826e-01</leafValues></_>
        <_>
          <internalNodes>
            0 -1 98 1460326930 -1761127551 1887699669 680149137
            -1054563616 134217868 270667427 -33421247</internalNodes>
          <leafValues>
            -6.9020777940750122e-01 4.6393138170242310e-01</leafValues></_>
        <_>
          <internalNodes>
            0 -1 35 -559199587 -777453056 -2147417840 -1862113263
            -1870657535 -117309440 -1064654400 1141410016</internalNodes>
          <leafValues>
            -6.1141073703765869e-01 5.3546082973480225e-01</leafValues></_>
        <_>
          <internalNodes>
            0 -1 155 -1060900712 1362100224 33689986 285483110
            -2134865781 -1022881792 269093032 1051419275</internalNodes>
          <leafValues>
            -6.1041116714477539e-01 5.4535180330276489e-01</leafValues></_></weakClassifiers></_>
    <!-- stage 18 -->
    <_>
      <maxWeakCount>8</maxWeakCount>
      <stageThreshold>-3.2148476690053940e-02</stageThreshold>
      <weakClassifiers>
        <_>
          <internalNodes>
            0 -1 83 1079231522 -1842278400 -1879025340 -1845370880
            1210155332 -479846080 19227 -1971191797</internalNodes>
          <leafValues>
            -6.5714287757873535e-01 5.8762884140014648e-01</leafValues></_>
        <_>
          <internalNodes>
            0 -1 193 -1221904325 -424792901 -1073774730 1744491993
            -1257062669 -840957953 1065047511 1744811925</internalNodes>
          <leafValues>
            -4.4271752238273621e-01 5.9253740310668945e-01</leafValues></_>
        <_>
          <internalNodes>
            0 -1 7 1360360259 294682953 268439727 -1623161316 1073743895
            2139620362 -1702887285 443777155</internalNodes>
          <leafValues>
            -5.7673192024230957e-01 5.0067573785781860e-01</leafValues></_>
        <_>
          <internalNodes>
            0 -1 136 1593344253 -8446593 1866103377 977149789 -268465025
            1069539129 -903213604 -1565346034</internalNodes>
          <leafValues>
            -5.0218600034713745e-01 6.2693822383880615e-01</leafValues></_>
        <_>
          <internalNodes>
            0 -1 128 -249826672 -955547512 67110363 1883439121
            -1736273782 -1459420671 73802 2034700944</internalNodes>
          <leafValues>
            -6.4285212755203247e-01 4.8980620503425598e-01</leafValues></_>
        <_>
          <internalNodes>
            0 -1 169 -1332684352 -243068848 8995345 291786890 181633379
            302809089 -1878790013 161480811</internalNodes>
          <leafValues>
            -6.2988293170928955e-01 5.1674878597259521e-01</leafValues></_>
        <_>
          <internalNodes>
            0 -1 148 -550478850 -1142477696 -549650453 1132322809
            -539653238 -1892294970 -168493993 -910696873</internalNodes>
          <leafValues>
            -4.6839725971221924e-01 7.1378427743911743e-01</leafValues></_>
        <_>
          <internalNodes>
            0 -1 69 1348142398 -1475657589 -1592733544 1406795849
            -662138082 -1808695168 2039012810 449015456</internalNodes>
          <leafValues>
            -5.9879636764526367e-01 5.5937719345092773e-01</leafValues></_></weakClassifiers></_>
    <!-- stage 19 -->
    <_>
      <maxWeakCount>8</maxWeakCount>
      <stageThreshold>1.3786254823207855e-01</stageThreshold>
      <weakClassifiers>
        <_>
          <internalNodes>
            0 -1 175 1560202828 2071820924 -17105138 1987100541
            2147460868 -67676297 729612186 1416656883</internalNodes>
          <leafValues>
            -3.9130434393882751e-01 6.4787113666534424e-01</leafValues></_>
        <_>
          <internalNodes>
            0 -1 59 -947055302 672235540 134221836 -1153331072
            -196501489 -2143117312 -1530887318 1499195600</internalNodes>
          <leafValues>
            -4.9574095010757446e-01 5.2184867858886719e-01</leafValues></_>
        <_>
          <internalNodes>
            0 -1 106 -5448748 -6635592 -832807 -1170548116 -27621127
            -7839747 -1132167714 -99389923</internalNodes>
          <leafValues>
            -4.4210824370384216e-01 6.1308443546295166e-01</leafValues></_>
        <_>
          <internalNodes>
            0 -1 134 -712531574 -1610053927 -670531582 1627587715
            25198730 1342701568 35823778 80722121</internalNodes>
          <leafValues>
            -5.4729920625686646e-01 5.3527426719665527e-01</leafValues></_>
        <_>
          <internalNodes>
            0 -1 116 -1811189443 -2146336512 -2079291815 -1861994010
            -1174396285 -670924800 -1396699748 -1147928552</internalNodes>
          <leafValues>
            -6.3834887742996216e-01 4.6777877211570740e-01</leafValues></_>
        <_>
          <internalNodes>
            0 -1 73 -1148421927 -357591826 -1358995462 -1096944331
            -1896907353 1725947115 -1354958090 -1557967717</internalNodes>
          <leafValues>
            -4.7722294926643372e-01 6.8207210302352905e-01</leafValues></_>
        <_>
          <internalNodes>
            0 -1 55 1349077339 -2025831412 21172637 1937839136
            -1987679983 1520308480 -1434275275 285267460</internalNodes>
          <leafValues>
            -6.2301570177078247e-01 5.1005119085311890e-01</leafValues></_>
        <_>
          <internalNodes>
            0 -1 144 -1477013261 -1619266690 -17334284 305327929
            703538846 -33636499 -855885899 -57639500</internalNodes>
          <leafValues>
            -4.9212181568145752e-01 6.4470809698104858e-01</leafValues></_></weakClassifiers></_>
    <!-- stage 20 -->
    <_>
      <maxWeakCount>7</maxWeakCount>
      <stageThreshold>-5.3892117738723755e-01</stageThreshold>
      <weakClassifiers>
        <_>
          <internalNodes>
            0 -1 36 -1073811457 -1418200090 720251416 669380395 -1
            788529023 1191105988 2122178533</internalNodes>
          <leafValues>
            -2.9014083743095398e-01 7.0632910728454590e-01</leafValues></_>
        <_>
          <internalNodes>
            0 -1 91 807457984 287641860 -1072623597 -1466408936
            -2140075374 578813987 1258959380 1178919280</internalNodes>
          <leafValues>
            -6.7669719457626343e-01 4.3178090453147888e-01</leafValues></_>
        <_>
          <internalNodes>
            0 -1 80 -280122502 -1662210838 -537495681 -19204 -1442858497
            -1358955009 1476392447 -922882827</internalNodes>
          <leafValues>
            -4.8955678939819336e-01 5.6354421377182007e-01</leafValues></_>
        <_>
          <internalNodes>
            0 -1 147 -1325375152 -1794849854 -804182007 -1660876415
            138412425 268437924 -1020632823 -1138469815</internalNodes>
          <leafValues>
            -6.4928269386291504e-01 4.4700795412063599e-01</leafValues></_>
        <_>
          <internalNodes>
            0 -1 125 -545661553 -822671825 -16779515 -1577848084 -932297
            -1502146665 -537798858 -172517593</internalNodes>
          <leafValues>
            -4.3843185901641846e-01 6.9166266918182373e-01</leafValues></_>
        <_>
          <internalNodes>
            0 -1 138 35688936 1427980289 2624 -698985826 847298990
            -1878916992 596186547 803676865</internalNodes>
          <leafValues>
            -6.7199993133544922e-01 4.6064728498458862e-01</leafValues></_>
        <_>
          <internalNodes>
            0 -1 28 -1169810309 -2146237309 119021640 -1610280678
            -1970794495 2052063232 -527775734 1764141673</internalNodes>
          <leafValues>
            -6.6022777557373047e-01 4.8520845174789429e-01</leafValues></_></weakClassifiers></_>
    <!-- stage 21 -->
    <_>
      <maxWeakCount>8</maxWeakCount>
      <stageThreshold>-6.7642079666256905e-03</stageThreshold>
      <weakClassifiers>
        <_>
          <internalNodes>
            0 -1 103 2074339073 -82370785 -8388775 -1167458549
            2100559828 -29380825 2067528459 34743055</internalNodes>
          <leafValues>
            -5.3703701496124268e-01 6.1463940143585205e-01</leafValues></_>
        <_>
          <internalNodes>
            0 -1 187 1363341911 1108378113 50331655 432079232 537538768
            76 134352904 75816962</internalNodes>
          <leafValues>
            -6.4355456829071045e-01 4.4297400116920471e-01</leafValues></_>
        <_>
          <internalNodes>
            0 -1 154 1192960128 -645857239 1090863177 -195989486 500354
            822132736 -2147163255 282050762</internalNodes>
          <leafValues>
            -5.5894088745117188e-01 5.4241973161697388e-01</leafValues></_>
        <_>
          <internalNodes>
            0 -1 26 -1853757481 -112758324 269500438 294820120 58738985
            975200384 -2147344374 2089592488</internalNodes>
          <leafValues>
            -5.7503324747085571e-01 4.9467614293098450e-01</leafValues></_>
        <_>
          <internalNodes>
            0 -1 32 417403132 806359040 371212645 1370343649 832837703
            1746929792 1747517664 -1405564721</internalNodes>
          <leafValues>
            -5.0728052854537964e-01 5.6847035884857178e-01</leafValues></_>
        <_>
          <internalNodes>
            0 -1 50 1344211587 -228849275 385 -968818168 982618432
            -2113797592 -33529723 1735045262</internalNodes>
          <leafValues>
            -6.3292878866195679e-01 4.8334202170372009e-01</leafValues></_>
        <_>
          <internalNodes>
            0 -1 105 750681355 1591134345 2118794995 5103483 -1267450150
            -1676804334 2136960569 -2081473665</internalNodes>
          <leafValues>
            -4.7677606344223022e-01 6.5861141681671143e-01</leafValues></_>
        <_>
          <internalNodes>
            0 -1 89 -5387213 -2228819 -1359081965 -366280894 -5443630
            2113896281 -1087725717 -1531027645</internalNodes>
          <leafValues>
            -4.4908252358436584e-01 6.9534313678741455e-01</leafValues></_></weakClassifiers></_>
    <!-- stage 22 -->
    <_>
      <maxWeakCount>8</maxWeakCount>
      <stageThreshold>5.8955632150173187e-02</stageThreshold>
      <weakClassifiers>
        <_>
          <internalNodes>
            0 -1 13 -623941117 -20986305 233754574 234867967 -268442515
            791618827 66032365 1144980607</internalNodes>
          <leafValues>
            -3.9483395218849182e-01 6.4302057027816772e-01</leafValues></_>
        <_>
          <internalNodes>
            0 -1 93 1078559742 -2147418111 -2130662860 620921096
            168001737 1342701568 679216148 164491398</internalNodes>
          <leafValues>
            -7.3541641235351562e-01 3.9735534787178040e-01</leafValues></_>
        <_>
          <internalNodes>
            0 -1 51 -1862582151 629906832 -1480673542 -1251004780
            -1623788395 -553857835 1962769911 -1592061679</internalNodes>
          <leafValues>
            -4.8215672373771667e-01 5.7951259613037109e-01</leafValues></_>
        <_>
          <internalNodes>
            0 -1 199 -2013022817 -460057980 1610663964 -2046721776
            558006475 201361474 -476890109 147761744</internalNodes>
          <leafValues>
            -5.7116776704788208e-01 4.7886177897453308e-01</leafValues></_>
        <_>
          <internalNodes>
            0 -1 64 -796831398 1112588374 -1584314032 1360007233
            1342410752 -1067432960 545278138 -2086626597</internalNodes>
          <leafValues>
            -5.2447098493576050e-01 5.3824841976165771e-01</leafValues></_>
        <_>
          <internalNodes>
            0 -1 67 1092620370 -2130643776 1073746697 -918531838
            -1879035006 -1317003128 16790416 -926776917</internalNodes>
          <leafValues>
            -5.7022792100906372e-01 5.1741081476211548e-01</leafValues></_>
        <_>
          <internalNodes>
            0 -1 158 -744238073 -1895633114 -134220751 2071756639
            1610473213 1189899847 2129614071 -1152555399</internalNodes>
          <leafValues>
            -3.8970649242401123e-01 7.7256745100021362e-01</leafValues></_>
        <_>
          <internalNodes>
            0 -1 71 -1365826721 -1683054980 -537071621 -834849541
            -1348485611 -44597249 -227843 -1599921084</internalNodes>
          <leafValues>
            -5.2294605970382690e-01 6.1804628372192383e-01</leafValues></_></weakClassifiers></_>
    <!-- stage 23 -->
    <_>
      <maxWeakCount>8</maxWeakCount>
      <stageThreshold>1.6052787005901337e-01</stageThreshold>
      <weakClassifiers>
        <_>
          <internalNodes>
            0 -1 188 783744859 1340800995 -1073789005 117342195
            1593202548 2012632565 50288620 286740</internalNodes>
          <leafValues>
            -4.7107437252998352e-01 6.3012182712554932e-01</leafValues></_>
        <_>
          <internalNodes>
            0 -1 4 -1051238055 -383942494 142675098 -1275051768
            294126858 1822958272 134745329 1847135304</internalNodes>
          <leafValues>
            -5.6800013780593872e-01 4.7673219442367554e-01</leafValues></_>
        <_>
          <internalNodes>
            0 -1 142 1577963770 -1625194871 -5242911 1888210033
            1192285902 -1081737328 743902975 -1257777697</internalNodes>
          <leafValues>
            -3.9974549412727356e-01 6.6484278440475464e-01</leafValues></_>
        <_>
          <internalNodes>
            0 -1 160 -255463332 327537244 272741333 872679498 -109010550
            1077968962 -1543503448 403285001</internalNodes>
          <leafValues>
            -5.1522940397262573e-01 5.2374464273452759e-01</leafValues></_>
        <_>
          <internalNodes>
            0 -1 82 -732801915 -1307557631 176162881 331468955 319291653
            -1356840296 176181295 -225466087</internalNodes>
          <leafValues>
            -5.1328837871551514e-01 5.8786708116531372e-01</leafValues></_>
        <_>
          <internalNodes>
            0 -1 88 605274210 297041937 1350603259 880675088 -771608210
            981533830 1485349027 839002325</internalNodes>
          <leafValues>
            -6.0720831155776978e-01 5.0317573547363281e-01</leafValues></_>
        <_>
          <internalNodes>
            0 -1 10 -30118001 780860394 -336138455 -1749295516
            1065349106 -1103725129 -428005465 -26747021</internalNodes>
          <leafValues>
            -4.2977887392044067e-01 6.9202816486358643e-01</leafValues></_>
        <_>
          <internalNodes>
            0 -1 121 1073824406 289407040 1342251089 1904330891 9613467
            88083075 -903216843 1580222984</internalNodes>
          <leafValues>
            -6.3039302825927734e-01 5.3112614154815674e-01</leafValues></_></weakClassifiers></_>
    <!-- stage 24 -->
    <_>
      <maxWeakCount>8</maxWeakCount>
      <stageThreshold>-1.8197344243526459e-01</stageThreshold>
      <weakClassifiers>
        <_>
          <internalNodes>
            0 -1 149 -785353540 -250576784 -2144779087 388583428
            -2144292216 1179808 14696985 174066700</internalNodes>
          <leafValues>
            -6.5714287757873535e-01 5.8762884140014648e-01</leafValues></_>
        <_>
          <internalNodes>
            0 -1 30 1501914075 543467658 302272706 -197046272 1942558731
            1682161825 -918492357 1577458226</internalNodes>
          <leafValues>
            -5.1792508363723755e-01 5.1546257734298706e-01</leafValues></_>
        <_>
          <internalNodes>
            0 -1 14 2028498692 -1354862610 -118587781 -693395715
            1081030521 -1103858188 1161289191 -418999429</internalNodes>
          <leafValues>
            -4.8357436060905457e-01 5.9344393014907837e-01</leafValues></_>
        <_>
          <internalNodes>
            0 -1 46 1630576903 -787439472 29382937 -2128510640 50370711
            -374284287 1258297618 -843005933</internalNodes>
          <leafValues>
            -5.7455289363861084e-01 4.7717842459678650e-01</leafValues></_>
        <_>
          <internalNodes>
            0 -1 131 -754957902 -1593737208 -2130081519 1527451679
            8424077 -1458519944 1241776268 1087964179</internalNodes>
          <leafValues>
            -6.1114293336868286e-01 4.7844752669334412e-01</leafValues></_>
        <_>
          <internalNodes>
            0 -1 115 -465264300 1678844437 269521104 830575689
            1616126049 1879056512 1209014705 -1995537000</internalNodes>
          <leafValues>
            -6.5393167734146118e-01 4.4934237003326416e-01</leafValues></_>
        <_>
          <internalNodes>
            0 -1 181 1048146901 619146029 -4228495 -142836099 905493692
            1022357343 -1242202449 -996427795</internalNodes>
          <leafValues>
            -4.8565265536308289e-01 6.5636682510375977e-01</leafValues></_>
        <_>
          <internalNodes>
            0 -1 195 -2074955490 713675090 8389176 -1199407091
            -526384648 196637 -536312884 1122082956</internalNodes>
          <leafValues>
            -6.5650278329849243e-01 4.7127911448478699e-01</leafValues></_></weakClassifiers></_>
    <!-- stage 25 -->
    <_>
      <maxWeakCount>7</maxWeakCount>
      <stageThreshold>2.5976744294166565e-01</stageThreshold>
      <weakClassifiers>
        <_>
          <internalNodes>
            0 -1 201 1145928 -133438655 553976066 1342228486 121733900
            -889040862 1359749890 -1063534066</internalNodes>
          <leafValues>
            -5.7388317584991455e-01 4.8898679018020630e-01</leafValues></_>
        <_>
          <internalNodes>
            0 -1 21 269631872 -1790869174 -1055913665 2101481731
            1883783441 -905897086 -503184941 -1702000383</internalNodes>
          <leafValues>
            -7.4051678180694580e-01 4.1974401473999023e-01</leafValues></_>
        <_>
          <internalNodes>
            0 -1 62 -286343253 -24653 1879041535 -1442859265 1979643635
            -769 -2030592513 -839922178</internalNodes>
          <leafValues>
            -5.3539758920669556e-01 5.9582823514938354e-01</leafValues></_>
        <_>
          <internalNodes>
            0 -1 146 50475130 -645857020 1342177553 -733802415
            -1868462968 -1744502776 688621833 1017328521</internalNodes>
          <leafValues>
            -6.1125212907791138e-01 5.9303814172744751e-01</leafValues></_>
        <_>
          <internalNodes>
            0 -1 24 -2130476670 1095336192 16842760 -48676601 536914140
            -2145910631 134545442 596869297</internalNodes>
          <leafValues>
            -7.5086808204650879e-01 4.3928191065788269e-01</leafValues></_>
        <_>
          <internalNodes>
            0 -1 203 1242129046 566599763 16777364 1225019811 1326137610
            1661566977 -1056603350 -664030590</internalNodes>
          <leafValues>
            -6.1246693134307861e-01 6.4566284418106079e-01</leafValues></_>
        <_>
          <internalNodes>
            0 -1 173 -152589501 -1083344398 -755376333 -552124420
            301979117 1469296368 -537270658 -461644042</internalNodes>
          <leafValues>
            -4.6035444736480713e-01 8.0028074979782104e-01</leafValues></_></weakClassifiers></_>
    <!-- stage 26 -->
    <_>
      <maxWeakCount>7</maxWeakCount>
      <stageThreshold>2.3906391113996506e-02</stageThreshold>
      <weakClassifiers>
        <_>
          <internalNodes>
            0 -1 101 -2070955738 -778522279 1091244401 135403537
            1095824151 -1853861855 -939517678 -1885075456</internalNodes>
          <leafValues>
            -6.0714286565780640e-01 4.8387095332145691e-01</leafValues></_>
        <_>
          <internalNodes>
            0 -1 43 -804965359 850595930 16614 546325513 -1341631935
            -284688319 -2013166968 2031250118</internalNodes>
          <leafValues>
            -6.7804831266403198e-01 4.2061510682106018e-01</leafValues></_>
        <_>
          <internalNodes>
            0 -1 68 -1459300325 -1878900448 1138017 -1551824832
            -794812175 427819264 -1585369720 1843970688</internalNodes>
          <leafValues>
            -6.2014067173004150e-01 5.0215572118759155e-01</leafValues></_>
        <_>
          <internalNodes>
            0 -1 159 -17078712 801112011 -1233226528 -235996421
            1207945103 107458551 1958664191 -170393613</internalNodes>
          <leafValues>
            -5.3055357933044434e-01 6.1921656131744385e-01</leafValues></_>
        <_>
          <internalNodes>
            0 -1 162 -1040205078 -947982763 -1154483367 481230847
            -1930694714 1593243636 2119040394 -1296532097</internalNodes>
          <leafValues>
            -5.5969411134719849e-01 6.1545687913894653e-01</leafValues></_>
        <_>
          <internalNodes>
            0 -1 204 -919128710 -922677052 153092102 311450002 8388746
            -2004680576 1090654356 2089517499</internalNodes>
          <leafValues>
            -6.8192487955093384e-01 5.4300308227539062e-01</leafValues></_>
        <_>
          <internalNodes>
            0 -1 72 68272396 689184979 604069961 -217505509 -2075885363
            1073840133 335636516 826737555</internalNodes>
          <leafValues>
            -7.8571385145187378e-01 4.7371703386306763e-01</leafValues></_></weakClassifiers></_>
    <!-- stage 27 -->
    <_>
      <maxWeakCount>7</maxWeakCount>
      <stageThreshold>-6.9796770811080933e-02</stageThreshold>
      <weakClassifiers>
        <_>
          <internalNodes>
            0 -1 119 -1499191632 19470660 -1136649087 -1039093695
            -1006043125 8456206 -2113853435 -562623126</internalNodes>
          <leafValues>
            -7.1063828468322754e-01 4.3529412150382996e-01</leafValues></_>
        <_>
          <internalNodes>
            0 -1 183 -958348770 34257476 2593 1116244994 -1068907802
            -2012364672 -939333430 2093236458</internalNodes>
          <leafValues>
            -6.0624182224273682e-01 4.8404446244239807e-01</leafValues></_>
        <_>
          <internalNodes>
            0 -1 123 -1476045902 -1241489399 -1560280786 1033572760
            162529282 335544449 16789819 -1677325296</internalNodes>
          <leafValues>
            -7.2250366210937500e-01 4.3668347597122192e-01</leafValues></_>
        <_>
          <internalNodes>
            0 -1 79 277971262 629211221 5247505 -1946107807 570638584
            -1566334975 1922048049 1778958360</internalNodes>
          <leafValues>
            -7.5597691535949707e-01 4.4621491432189941e-01</leafValues></_>
        <_>
          <internalNodes>
            0 -1 94 -1125956303 925732335 -257 -1180401669 -1073841970
            1878917117 -164298948 -1477214345</internalNodes>
          <leafValues>
            -5.5589181184768677e-01 6.4115470647811890e-01</leafValues></_>
        <_>
          <internalNodes>
            0 -1 19 -385052634 1108619465 -1054277629 -780074618
            -1610534759 -2013066604 1610711345 1158072835</internalNodes>
          <leafValues>
            -7.4831765890121460e-01 4.5882111787796021e-01</leafValues></_>
        <_>
          <internalNodes>
            0 -1 151 301529296 -620874178 -939542737 -96999455
            1073165834 -1880100865 -895566167 -1646455820</internalNodes>
          <leafValues>
            -5.6782430410385132e-01 6.7209982872009277e-01</leafValues></_></weakClassifiers></_>
    <!-- stage 28 -->
    <_>
      <maxWeakCount>6</maxWeakCount>
      <stageThreshold>-1.4906927943229675e-01</stageThreshold>
      <weakClassifiers>
        <_>
          <internalNodes>
            0 -1 178 -671257123 -302150717 -83886100 -117637507
            1333588554 -1392507775 -1929576596 -1327857942</internalNodes>
          <leafValues>
            -4.7701150178909302e-01 5.5667507648468018e-01</leafValues></_>
        <_>
          <internalNodes>
            0 -1 174 976878943 -1624572224 -3477510 1980525306
            -1644634526 1610547196 -453281800 -611098625</internalNodes>
          <leafValues>
            -4.0346789360046387e-01 7.0627224445343018e-01</leafValues></_>
        <_>
          <internalNodes>
            0 -1 185 -883965571 -1606266422 1157710216 425459737
            -2138996526 -1584824304 -1005728574 99795010</internalNodes>
          <leafValues>
            -5.4246944189071655e-01 5.7835453748703003e-01</leafValues></_>
        <_>
          <internalNodes>
            0 -1 38 -573192798 -2078719989 -2129473247 -1674432121
            145031433 579471392 -1996354662 1596424420</internalNodes>
          <leafValues>
            -6.8786519765853882e-01 5.0533658266067505e-01</leafValues></_>
        <_>
          <internalNodes>
            0 -1 150 -246790054 -733756388 -400506231 -1778384767
            -2139093758 -2004844463 -2003689245 -1847949272</internalNodes>
          <leafValues>
            -6.1204123497009277e-01 5.9032297134399414e-01</leafValues></_>
        <_>
          <internalNodes>
            0 -1 182 -804640676 84181584 -2143247296 1405681870
            -478017143 -1994387307 -1331591514 51429976</internalNodes>
          <leafValues>
            -7.7200496196746826e-01 4.8699548840522766e-01</leafValues></_></weakClassifiers></_>
    <!-- stage 29 -->
    <_>
      <maxWeakCount>7</maxWeakCount>
      <stageThreshold>-2.6944955810904503e-02</stageThreshold>
      <weakClassifiers>
        <_>
          <internalNodes>
            0 -1 104 544221104 -1072621566 -787992515 563355696
            -2113824632 -2147467245 -2139021289 -1946090657</internalNodes>
          <leafValues>
            -8.4615385532379150e-01 3.7122556567192078e-01</leafValues></_>
        <_>
          <internalNodes>
            0 -1 197 -2120695325 42995844 -1878974205 -1895186304
            -1065314166 -2011045870 269011971 -410815867</internalNodes>
          <leafValues>
            -5.6340962648391724e-01 5.3613764047622681e-01</leafValues></_>
        <_>
          <internalNodes>
            0 -1 163 436439274 8389762 1650524672 268468227 2254
            1259110530 -1983182812 -1430770517</internalNodes>
          <leafValues>
            -5.7011938095092773e-01 5.9341871738433838e-01</leafValues></_>
        <_>
          <internalNodes>
            0 -1 152 837847240 -1916005369 35929 -998043493 -2146434530
            -1728053118 352583848 -1089754999</internalNodes>
          <leafValues>
            -6.6675996780395508e-01 4.8561391234397888e-01</leafValues></_>
        <_>
          <internalNodes>
            0 -1 118 -1569331270 -1508178780 1074937889 -733904252
            -1744234360 136650916 -1996467284 -1740512557</internalNodes>
          <leafValues>
            -6.4449107646942139e-01 5.3278702497482300e-01</leafValues></_>
        <_>
          <internalNodes>
            0 -1 124 939619938 -2146332594 -2130525849 1359906833
            17625608 -2000207471 814191758 -2122104800</internalNodes>
          <leafValues>
            -7.1613276004791260e-01 5.0002300739288330e-01</leafValues></_>
        <_>
          <internalNodes>
            0 -1 166 478158984 -1865318046 159383835 1763250193
            843525295 -1342158702 1132568739 2022312586</internalNodes>
          <leafValues>
            -6.6645705699920654e-01 5.4724276065826416e-01</leafValues></_></weakClassifiers></_></stages>
  <features>
    <_>
      <rect>
        0 1 10 14</rect></_>
    <_>
      <rect>
        0 2 22 16</rect></_>
    <_>
      <rect>
        0 4 8 13</rect></_>
    <_>
      <rect>
        0 16 12 11</rect></_>
    <_>
      <rect>
        0 42 22 6</rect></_>
    <_>
      <rect>
        1 12 10 16</rect></_>
    <_>
      <rect>
        1 15 11 15</rect></_>
    <_>
      <rect>
        1 39 18 7</rect></_>
    <_>
      <rect>
        2 0 22 6</rect></_>
    <_>
      <rect>
        2 8 11 14</rect></_>
    <_>
      <rect>
        3 16 5 6</rect></_>
    <_>
      <rect>
        3 17 10 12</rect></_>
    <_>
      <rect>
        3 18 19 8</rect></_>
    <_>
      <rect>
        4 7 19 12</rect></_>
    <_>
      <rect>
        5 6 16 4</rect></_>
    <_>
      <rect>
        5 15 24 15</rect></_>
    <_>
      <rect>
        5 26 4 8</rect></_>
    <_>
      <rect>
        5 42 24 6</rect></_>
    <_>
      <rect>
        6 11 13 6</rect></_>
    <_>
      <rect>
        6 15 7 4</rect></_>
    <_>
      <rect>
        7 7 20 16</rect></_>
    <_>
      <rect>
        7 12 19 15</rect></_>
    <_>
      <rect>
        8 5 16 5</rect></_>
    <_>
      <rect>
        8 39 23 6</rect></_>
    <_>
      <rect>
        9 12 8 3</rect></_>
    <_>
      <rect>
        10 25 5 8</rect></_>
    <_>
      <rect>
        10 39 14 7</rect></_>
    <_>
      <rect>
        11 5 15 17</rect></_>
    <_>
      <rect>
        11 34 4 4</rect></_>
    <_>
      <rect>
        12 13 18 14</rect></_>
    <_>
      <rect>
        12 24 6 9</rect></_>
    <_>
      <rect>
        13 0 14 18</rect></_>
    <_>
      <rect>
        13 8 18 13</rect></_>
    <_>
      <rect>
        14 7 18 13</rect></_>
    <_>
      <rect>
        14 27 14 7</rect></_>
    <_>
      <rect>
        14 38 4 3</rect></_>
    <_>
      <rect>
        14 38 22 7</rect></_>
    <_>
      <rect>
        15 0 15 13</rect></_>
    <_>
      <rect>
        15 22 5 3</rect></_>
    <_>
      <rect>
        16 0 18 8</rect></_>
    <_>
      <rect>
        16 6 18 13</rect></_>
    <_>
      <rect>
        16 21 13 9</rect></_>
    <_>
      <rect>
        16 32 4 5</rect></_>
    <_>
      <rect>
        16 39 5 5</rect></_>
    <_>
      <rect>
        17 4 13 13</rect></_>
    <_>
      <rect>
        17 11 11 6</rect></_>
    <_>
      <rect>
        17 14 12 8</rect></_>
    <_>
      <rect>
        17 19 7 8</rect></_>
    <_>
      <rect>
        17 24 12 6</rect></_>
    <_>
      <rect>
        17 37 6 5</rect></_>
    <_>
      <rect>
        17 41 2 2</rect></_>
    <_>
      <rect>
        18 2 9 5</rect></_>
    <_>
      <rect>
        18 19 7 6</rect></_>
    <_>
      <rect>
        19 5 10 15</rect></_>
    <_>
      <rect>
        19 24 12 8</rect></_>
    <_>
      <rect>
        19 28 3 3</rect></_>
    <_>
      <rect>
        19 31 4 5</rect></_>
    <_>
      <rect>
        20 0 20 10</rect></_>
    <_>
      <rect>
        20 8 11 5</rect></_>
    <_>
      <rect>
        20 30 4 5</rect></_>
    <_>
      <rect>
        21 2 9 12</rect></_>
    <_>
      <rect>
        21 11 7 12</rect></_>
    <_>
      <rect>
        21 15 8 7</rect></_>
    <_>
      <rect>
        21 20 15 10</rect></_>
    <_>
      <rect>
        22 5 11 11</rect></_>
    <_>
      <rect>
        22 7 11 8</rect></_>
    <_>
      <rect>
        22 10 11 9</rect></_>
    <_>
      <rect>
        22 14 8 7</rect></_>
    <_>
      <rect>
        22 23 3 2</rect></_>
    <_>
      <rect>
        22 35 2 2</rect></_>
    <_>
      <rect>
        22 44 5 3</rect></_>
    <_>
      <rect>
        23 1 11 4</rect></_>
    <_>
      <rect>
        23 1 16 18</rect></_>
    <_>
      <rect>
        23 2 10 10</rect></_>
    <_>
      <rect>
        23 9 10 4</rect></_>
    <_>
      <rect>
        23 9 11 12</rect></_>
    <_>
      <rect>
        23 9 12 6</rect></_>
    <_>
      <rect>
        23 10 9 9</rect></_>
    <_>
      <rect>
        23 15 12 13</rect></_>
    <_>
      <rect>
        23 16 10 4</rect></_>
    <_>
      <rect>
        23 21 7 6</rect></_>
    <_>
      <rect>
        23 28 2 4</rect></_>
    <_>
      <rect>
        24 9 17 14</rect></_>
    <_>
      <rect>
        24 18 12 7</rect></_>
    <_>
      <rect>
        24 45 10 5</rect></_>
    <_>
      <rect>
        25 0 18 13</rect></_>
    <_>
      <rect>
        25 12 12 13</rect></_>
    <_>
      <rect>
        25 19 13 8</rect></_>
    <_>
      <rect>
        26 1 12 6</rect></_>
    <_>
      <rect>
        26 6 12 8</rect></_>
    <_>
      <rect>
        26 9 13 7</rect></_>
    <_>
      <rect>
        26 16 10 3</rect></_>
    <_>
      <rect>
        26 16 11 13</rect></_>
    <_>
      <rect>
        26 38 14 7</rect></_>
    <_>
      <rect>
        26 48 3 4</rect></_>
    <_>
      <rect>
        28 0 12 15</rect></_>
    <_>
      <rect>
        28 5 13 5</rect></_>
    <_>
      <rect>
        28 6 10 9</rect></_>
    <_>
      <rect>
        28 11 7 4</rect></_>
    <_>
      <rect>
        28 13 7 5</rect></_>
    <_>
      <rect>
        28 15 9 9</rect></_>
    <_>
      <rect>
        28 16 8 5</rect></_>
    <_>
      <rect>
        28 17 7 4</rect></_>
    <_>
      <rect>
        29 0 15 14</rect></_>
    <_>
      <rect>
        29 6 6 14</rect></_>
    <_>
      <rect>
        29 8 10 3</rect></_>
    <_>
      <rect>
        29 9 12 8</rect></_>
    <_>
      <rect>
        29 10 8 5</rect></_>
    <_>
      <rect>
        29 14 2 2</rect></_>
    <_>
      <rect>
        29 18 17 14</rect></_>
    <_>
      <rect>
        29 19 6 8</rect></_>
    <_>
      <rect>
        30 4 9 5</rect></_>
    <_>
      <rect>
        30 6 9 7</rect></_>
    <_>
      <rect>
        31 7 6 4</rect></_>
    <_>
      <rect>
        31 12 8 7</rect></_>
    <_>
      <rect>
        31 18 7 5</rect></_>
    <_>
      <rect>
        31 45 7 5</rect></_>
    <_>
      <rect>
        32 0 16 15</rect></_>
    <_>
      <rect>
        32 6 7 6</rect></_>
    <_>
      <rect>
        32 8 6 14</rect></_>
    <_>
      <rect>
        32 13 12 9</rect></_>
    <_>
      <rect>
        32 14 9 4</rect></_>
    <_>
      <rect>
        32 34 4 3</rect></_>
    <_>
      <rect>
        32 47 5 4</rect></_>
    <_>
      <rect>
        33 5 7 4</rect></_>
    <_>
      <rect>
        33 5 12 16</rect></_>
    <_>
      <rect>
        33 6 6 5</rect></_>
    <_>
      <rect>
        33 13 10 11</rect></_>
    <_>
      <rect>
        33 30 4 3</rect></_>
    <_>
      <rect>
        33 45 5 5</rect></_>
    <_>
      <rect>
        34 6 9 8</rect></_>
    <_>
      <rect>
        34 7 6 5</rect></_>
    <_>
      <rect>
        34 8 5 4</rect></_>
    <_>
      <rect>
        34 8 11 12</rect></_>
    <_>
      <rect>
        34 9 2 2</rect></_>
    <_>
      <rect>
        34 13 10 7</rect></_>
    <_>
      <rect>
        34 17 7 5</rect></_>
    <_>
      <rect>
        34 33 9 7</rect></_>
    <_>
      <rect>
        34 36 4 3</rect></_>
    <_>
      <rect>
        34 46 5 4</rect></_>
    <_>
      <rect>
        34 49 6 3</rect></_>
    <_>
      <rect>
        35 5 6 8</rect></_>
    <_>
      <rect>
        35 5 8 5</rect></_>
    <_>
      <rect>
        35 17 6 6</rect></_>
    <_>
      <rect>
        35 19 6 3</rect></_>
    <_>
      <rect>
        35 19 6 4</rect></_>
    <_>
      <rect>
        35 38 4 3</rect></_>
    <_>
      <rect>
        35 47 3 4</rect></_>
    <_>
      <rect>
        36 9 6 4</rect></_>
    <_>
      <rect>
        36 11 4 5</rect></_>
    <_>
      <rect>
        36 21 5 4</rect></_>
    <_>
      <rect>
        36 26 4 3</rect></_>
    <_>
      <rect>
        36 36 3 3</rect></_>
    <_>
      <rect>
        36 41 8 6</rect></_>
    <_>
      <rect>
        37 7 2 3</rect></_>
    <_>
      <rect>
        37 34 4 4</rect></_>
    <_>
      <rect>
        37 48 2 2</rect></_>
    <_>
      <rect>
        37 51 6 3</rect></_>
    <_>
      <rect>
        38 10 5 2</rect></_>
    <_>
      <rect>
        38 13 2 1</rect></_>
    <_>
      <rect>
        38 23 5 3</rect></_>
    <_>
      <rect>
        38 27 3 6</rect></_>
    <_>
      <rect>
        38 28 6 5</rect></_>
    <_>
      <rect>
        38 29 4 6</rect></_>
    <_>
      <rect>
        38 32 2 3</rect></_>
    <_>
      <rect>
        38 32 4 3</rect></_>
    <_>
      <rect>
        38 38 4 2</rect></_>
    <_>
      <rect>
        39 32 5 4</rect></_>
    <_>
      <rect>
        39 34 7 8</rect></_>
    <_>
      <rect>
        40 31 3 4</rect></_>
    <_>
      <rect>
        40 33 4 3</rect></_>
    <_>
      <rect>
        40 36 4 3</rect></_>
    <_>
      <rect>
        40 38 3 3</rect></_>
    <_>
      <rect>
        41 9 3 3</rect></_>
    <_>
      <rect>
        41 30 4 6</rect></_>
    <_>
      <rect>
        42 25 6 5</rect></_>
    <_>
      <rect>
        43 18 6 7</rect></_>
    <_>
      <rect>
        43 39 11 4</rect></_>
    <_>
      <rect>
        44 7 12 6</rect></_>
    <_>
      <rect>
        44 22 7 5</rect></_>
    <_>
      <rect>
        44 40 8 4</rect></_>
    <_>
      <rect>
        44 51 5 3</rect></_>
    <_>
      <rect>
        45 17 5 4</rect></_>
    <_>
      <rect>
        45 26 4 7</rect></_>
    <_>
      <rect>
        46 6 10 16</rect></_>
    <_>
      <rect>
        46 17 5 6</rect></_>
    <_>
      <rect>
        49 37 4 4</rect></_>
    <_>
      <rect>
        50 20 6 10</rect></_>
    <_>
      <rect>
        50 27 6 7</rect></_>
    <_>
      <rect>
        51 2 9 11</rect></_>
    <_>
      <rect>
        52 20 9 6</rect></_>
    <_>
      <rect>
        52 24 7 8</rect></_>
    <_>
      <rect>
        54 20 4 4</rect></_>
    <_>
      <rect>
        54 41 2 2</rect></_>
    <_>
      <rect>
        55 37 3 3</rect></_>
    <_>
      <rect>
        56 22 6 9</rect></_>
    <_>
      <rect>
        57 11 7 16</rect></_>
    <_>
      <rect>
        57 32 6 8</rect></_>
    <_>
      <rect>
        58 24 3 5</rect></_>
    <_>
      <rect>
        58 32 3 3</rect></_>
    <_>
      <rect>
        59 6 7 11</rect></_>
    <_>
      <rect>
        59 10 7 9</rect></_>
    <_>
      <rect>
        59 23 7 6</rect></_>
    <_>
      <rect>
        61 2 5 10</rect></_>
    <_>
      <rect>
        61 32 2 1</rect></_></features></cascade>
</opencv_storage>